{
  "teams": [
    "America-MG",
    "America-RN",
    "Athletico-PR",
    "Atletico-GO",
    "Atletico-MG",
    "Avai",
    "Bahia",
    "Barueri",
    "Botafogo-RJ",
    "Bragantino",
    "Brasiliense",
    "Ceara",
    "Chapecoense",
    "Corinthians",
    "Coritiba",
    "Criciuma",
    "Cruzeiro",
    "CSA",
    "Cuiaba",
    "Figueirense",
    "Flamengo",
    "Fluminense",
    "Fortaleza",
    "Goias",
    "Gremio",
    "Gremio Prudente",
    "Guarani",
    "Internacional",
    "Ipatinga",
    "Joinville",
    "Juventude",
    "Mirassol",
    "Nautico",
    "Palmeiras",
    "Parana",
    "Paysandu",
    "Ponte Preta",
    "Portuguesa",
    "Santa Cruz",
    "Santo Andre",
    "Santos",
    "Sao Caetano",
    "Sao Paulo",
    "Sport",
    "Vasco",
    "Vitoria"
  ],
  "weights": [
    [
      -0.22926470974192506,
      0.12323871336269651,
      0.1154199820816376
    ],
    [
      -0.5677181313021785,
      -0.18449529682060983,
      0.7567795510610122
    ],
    [
      0.3469806953336864,
      -0.005753914529871944,
      -0.3427493915706986
    ],
    [
      -0.35475961717863724,
      -0.10408904832692281,
      0.45871512790342667
    ],
    [
      0.24505364671206092,
      -0.15481226258815134,
      -0.08283749946718832
    ],
    [
      -0.3626735910617331,
      0.23072297309060172,
      0.13306179984191394
    ],
    [
      -0.10110118264747385,
      0.07658920984283793,
      0.02260734537497175
    ],
    [
      0.10255331244797453,
      0.19705000433200068,
      -0.29096830846884353
    ],
    [
      0.028950004370748378,
      0.000019955497216857146,
      -0.020226320028488315
    ],
    [
      0.0999979570470499,
      0.06933852479590384,
      -0.1717145056667567
    ],
    [
      -0.3077770334528153,
      0.1054603521942519,
      0.1995044971829824
    ],
    [
      -0.15415775089437428,
      0.324007803541718,
      -0.16129767606646064
    ],
    [
      -0.11786791133295514,
      -0.01659488455133185,
      0.1301738639720634
    ],
    [
      0.2516400446985713,
      0.05527278769472503,
      -0.3025605351520548
    ],
    [
      0.08014012907370847,
      -0.06386591167338898,
      -0.012992225289417016
    ],
    [
      0.05751697543068901,
      -0.2252983935981595,
      0.1705120620404224
    ],
    [
      0.24939923520348978,
      -0.0865288201820136,
      -0.1592060203489956
    ],
    [
      -0.2253937435066551,
      -0.03946790334810745,
      0.2606320813299788
    ],
    [
      -0.07241196312042493,
      0.10722217416210715,
      -0.029720034836096164
    ],
    [
      -0.07036604016264289,
      0.1303550524576448,
      -0.07107217939906502
    ],
    [
      0.24715118571555378,
      0.037198228687654766,
      -0.2766745656369172
    ],
    [
      0.030723187228868777,
      0.005754544627406133,
      -0.0349262937718872
    ],
    [
      0.022324273226780333,
      -0.15678180923979004,
      0.1272457050420204
    ],
    [
      0.12153647015178595,
      -0.09609718376733724,
      -0.028596045735230165
    ],
    [
      0.36314660568264995,
      -0.045185979940219057,
      -0.3146470221113886
    ],
    [
      -0.3151364494428291,
      -0.026167935936809564,
      0.34817184103882776
    ],
    [
      0.014081899833392177,
      0.21186123807450685,
      -0.22453889343686845
    ],
    [
      0.3750098966071141,
      -0.0451431239572894,
      -0.3252769763856029
    ],
    [
      0.0139100891176002,
      -0.1971870495108678,
      0.18845902601979755
    ],
    [
      -0.22996984892289193,
      0.14631407543876196,
      0.07537437729272312
    ],
    [
      0.04635185602987406,
      0.20547618241614551,
      -0.2591358122928793
    ],
    [
      0.004751026097408013,
      -0.004288435279038296,
      -0.004419482872112562
    ],
    [
      -0.008650060694632372,
      -0.28104325837349825,
      0.2940241889114222
    ],
    [
      0.2829160150599918,
      -0.12177010567197988,
      -0.17041555881935488
    ],
    [
      0.047074471810733834,
      -0.10390606616877243,
      0.058862184134157614
    ],
    [
      0.16342279322749334,
      -0.09971492061079824,
      -0.06470351568111385
    ],
    [
      0.014253514768521606,
      -0.2070201275443897,
      0.19429385680071992
    ],
    [
      -0.06381778665623179,
      0.3655513660909941,
      -0.3089577840775945
    ],
    [
      -0.2373966528927186,
      -0.3188618770047633,
      0.5660030776763458
    ],
    [
      -0.07278201072219923,
      -0.009335788886501186,
      0.08644707338253607
    ],
    [
      0.3773215617006218,
      0.019724059045058487,
      -0.40154184740281096
    ],
    [
      0.08918462781038777,
      -0.127632383343269,
      0.03630899291433472
    ],
    [
      0.34742730795438503,
      0.10411095094107936,
      -0.455593031824194
    ],
    [
      0.05463185669971166,
      0.04339254757072711,
      -0.10440889193870934
    ],
    [
      -0.050731553630165564,
      0.08818590685235951,
      -0.047877212887203154
    ],
    [
      -0.05605005563731852,
      -0.039365356748285465,
      0.09303230451916339
    ],
    [
      0.5387166500052597,
      0.0214533940956583,
      -0.562580185082094
    ],
    [
      0.39615433424187163,
      -0.2404785068046092,
      -0.1572016607221896
    ],
    [
      -0.01754831421284227,
      -0.19944543069805318,
      0.21789973800769055
    ],
    [
      -0.11787228134312895,
      0.0259356984970273,
      0.0990540965232215
    ],
    [
      -0.2631947392475491,
      0.02729699434006091,
      0.23232625562782386
    ],
    [
      0.17213409692648154,
      -0.136016512836546,
      -0.038737131666380896
    ],
    [
      -0.03541204635203141,
      0.07166875883032209,
      -0.045279698682805916
    ],
    [
      0.05233728522837292,
      0.12565374873315807,
      -0.1796465233381919
    ],
    [
      -0.14555678487584986,
      0.041121226332409944,
      0.10530272263391029
    ],
    [
      -0.5625473618394393,
      0.05844407514938355,
      0.4997245483695171
    ],
    [
      0.05211381546152767,
      -0.023064764116106275,
      -0.02286381583137273
    ],
    [
      0.02459389590901249,
      0.114941551150541,
      -0.14371141983065325
    ],
    [
      -0.10297195122553415,
      0.18783323400132473,
      -0.08176035721449833
    ],
    [
      -0.4126145506568712,
      0.0955965634818879,
      0.32443932211073434
    ],
    [
      0.0024827239994271643,
      0.11251967449657278,
      -0.11472813895831338
    ],
    [
      0.2895397763982613,
      0.0175441757547403,
      -0.30844267927940267
    ],
    [
      -0.23601513286720074,
      -0.23375818070851223,
      0.473621980409798
    ],
    [
      0.3157396066037206,
      -0.15988762112620397,
      -0.15528878024961168
    ],
    [
      -0.4400392592087398,
      0.7084789651129625,
      -0.26268424006050756
    ],
    [
      -0.046944720554743316,
      -0.03394744712130204,
      0.08135752963861609
    ],
    [
      -0.37143521019044934,
      0.010169592728331327,
      0.3617474418517685
    ],
    [
      -0.26388659745291326,
      -0.06015537956678255,
      0.32324972493158954
    ],
    [
      0.017921010373707472,
      0.18954625725887314,
      -0.21369914387220545
    ],
    [
      0.005757923957237998,
      -0.19082001004410518,
      0.18837136780353914
    ],
    [
      -0.26954256748325606,
      0.03815888895614117,
      0.22987941785863444
    ],
    [
      0.15699288607119138,
      0.017828870049645926,
      -0.17202904245368705
    ],
    [
      0.3146371823360314,
      0.11147519228802191,
      -0.43319154228631623
    ],
    [
      -0.2694375492739794,
      -0.032531047399388655,
      0.29560171536894336
    ],
    [
      0.3161984281204109,
      0.05919247489958084,
      -0.3825667339851807
    ],
    [
      0.402965118504723,
      -0.14633105750973957,
      -0.25959285855121284
    ],
    [
      0.25954751962231404,
      -0.3472178940280301,
      0.09593928451472648
    ],
    [
      0.0034320174230377276,
      0.001594943605355894,
      0.002124345048408334
    ],
    [
      0.36222997433660076,
      -0.10592281715569221,
      -0.2553130776650241
    ],
    [
      -0.3822921494806064,
      0.03047738477586836,
      0.3513468178567367
    ],
    [
      0.15904602596318845,
      -0.1858559577867854,
      0.033412980309380155
    ],
    [
      0.42227910208175073,
      0.006672702597523848,
      -0.42921532483981073
    ],
    [
      0.013239640556383415,
      0.10285601097479,
      -0.11392790780502973
    ],
    [
      0.1860887181376179,
      0.09534084446977155,
      -0.28624317847824543
    ],
    [
      0.44912610914859785,
      -0.016930769917701184,
      -0.4321521240059898
    ],
    [
      0.21342502187198206,
      -0.15628008322829529,
      -0.0584444429994512
    ],
    [
      -0.24327920294236602,
      -0.03791405050379551,
      0.2740747562555252
    ],
    [
      -0.12625806747862625,
      -0.0863884756746304,
      0.20838490599924123
    ],
    [
      -0.4396155364393802,
      -0.0041941732029544465,
      0.44487437882572217
    ],
    [
      0.1755679440648885,
      -0.007380624634557614,
      -0.1624491352517647
    ],
    [
      -0.19543870208041209,
      0.09758823183332882,
      0.10011250902140026
    ],
    [
      0.08938040040379137,
      -0.07058242079096166,
      -0.021002403300131783
    ]
  ],
  "bias": [
    0.4569747461764562,
    -0.12544785014982265,
    -0.3315268960266307
  ],
  "version": "2026-03-19T12:12:08.161Z",
  "test_accuracy": 0.4604473540643753
}