{
  "teams": [
    "America-MG",
    "America-RN",
    "Athletico-PR",
    "Atletico-GO",
    "Atletico-MG",
    "Avai",
    "Bahia",
    "Barueri",
    "Botafogo-RJ",
    "Bragantino",
    "Brasiliense",
    "Ceara",
    "Chapecoense",
    "Corinthians",
    "Coritiba",
    "Criciuma",
    "Cruzeiro",
    "CSA",
    "Cuiaba",
    "Figueirense",
    "Flamengo",
    "Fluminense",
    "Fortaleza",
    "Goias",
    "Gremio",
    "Gremio Prudente",
    "Guarani",
    "Internacional",
    "Ipatinga",
    "Joinville",
    "Juventude",
    "Mirassol",
    "Nautico",
    "Palmeiras",
    "Parana",
    "Paysandu",
    "Ponte Preta",
    "Portuguesa",
    "Santa Cruz",
    "Santo Andre",
    "Santos",
    "Sao Caetano",
    "Sao Paulo",
    "Sport",
    "Vasco",
    "Vitoria"
  ],
  "weights": [
    [
      -0.23333739535611386,
      0.11934525192040342,
      0.11139706738034119
    ],
    [
      -0.5671979211084127,
      -0.1810592597338913,
      0.7574205733909795
    ],
    [
      0.34527213857047406,
      -0.007249135135884032,
      -0.34474375550400904
    ],
    [
      -0.3535110754751055,
      -0.10245430090407617,
      0.4598960822547281
    ],
    [
      0.24276677669667782,
      -0.15688381363937645,
      -0.0854101591207177
    ],
    [
      -0.3626328753948192,
      0.23095512838091506,
      0.13290565733204077
    ],
    [
      -0.0974787871512615,
      0.08040816925163037,
      0.025919557749432002
    ],
    [
      0.09963700825720648,
      0.19770178328090315,
      -0.29428958917757897
    ],
    [
      0.029373825403106384,
      0.0006601800900602178,
      -0.02009173272038359
    ],
    [
      0.10487334950313815,
      0.0746299514100232,
      -0.1729820453800871
    ],
    [
      -0.30602660189670133,
      0.1081847633477199,
      0.20128290273296337
    ],
    [
      -0.15540990522718895,
      0.32298040190461197,
      -0.16280873035848814
    ],
    [
      -0.11428378319836587,
      -0.012925587313391424,
      0.13345662743724174
    ],
    [
      0.2514576085869381,
      0.05530436202279556,
      -0.30302568797013363
    ],
    [
      0.07946894414081988,
      -0.06432888419084556,
      -0.013939534956096162
    ],
    [
      0.05670215657536488,
      -0.2259296239219749,
      0.16930030762565965
    ],
    [
      0.24769408164139145,
      -0.0880192107485032,
      -0.16121023648478247
    ],
    [
      -0.22778519551443432,
      -0.04301043606244535,
      0.2594503476989299
    ],
    [
      -0.07682323589061973,
      0.10137439765613442,
      -0.028118721171748098
    ],
    [
      -0.06552457795333742,
      0.13538331456004946,
      -0.06656136542819083
    ],
    [
      0.2439978797205109,
      0.0342591301039428,
      -0.2801091007524599
    ],
    [
      0.03252713579611789,
      0.007794057984379954,
      -0.03341324949167202
    ],
    [
      0.024299526412992548,
      -0.15472568441113901,
      0.12872442459843897
    ],
    [
      0.1225842180620537,
      -0.09484302669955945,
      -0.027841740416737173
    ],
    [
      0.3600520787399652,
      -0.04806224969130223,
      -0.318019072014764
    ],
    [
      -0.31578741999882154,
      -0.026570937704267997,
      0.346954338383612
    ],
    [
      0.013115505346833624,
      0.21097121848289915,
      -0.2265600787876214
    ],
    [
      0.37415143828354386,
      -0.04578596004068155,
      -0.32642747938072814
    ],
    [
      0.008349380473963133,
      -0.19908819870663041,
      0.18580067703981756
    ],
    [
      -0.22703164190526995,
      0.14986662707738016,
      0.07887321757122714
    ],
    [
      0.05166377635825207,
      0.2109135456797665,
      -0.2542955448083749
    ],
    [
      0.002544203234943985,
      0.004487352765017487,
      0.00026149387165608885
    ],
    [
      -0.010360376521254178,
      -0.28239466145994746,
      0.29218051769515396
    ],
    [
      0.2849612846906379,
      -0.11951235473375535,
      -0.1686508579065585
    ],
    [
      0.04762297719242272,
      -0.10320340307046776,
      0.05906092494526714
    ],
    [
      0.16294706712454818,
      -0.10099718165461746,
      -0.06538845145593111
    ],
    [
      0.011539314230474156,
      -0.20955355921394217,
      0.191233187883436
    ],
    [
      -0.05942188855371299,
      0.3705236413474642,
      -0.3053036511480032
    ],
    [
      -0.2415428636917749,
      -0.3214632319360018,
      0.5628968884551713
    ],
    [
      -0.07334886220696875,
      -0.008782125044580955,
      0.08388301007386831
    ],
    [
      0.3776916160466865,
      0.02031156566571162,
      -0.4014617693374867
    ],
    [
      0.08752162152493347,
      -0.12941613449601494,
      0.03411413189149299
    ],
    [
      0.34710183069281236,
      0.10402264608782573,
      -0.4562032733745934
    ],
    [
      0.05813297291334042,
      0.047381172176909445,
      -0.10109595442491978
    ],
    [
      -0.04451083457696755,
      0.09461293417080793,
      -0.04197352959869444
    ],
    [
      -0.05294429409260045,
      -0.03602954746703362,
      0.09587473716273603
    ],
    [
      0.5365560380467608,
      0.019448068465462032,
      -0.5659498112447295
    ],
    [
      0.3976698373778101,
      -0.2378239467278534,
      -0.15696777244332952
    ],
    [
      -0.019048483869296803,
      -0.2012631326423707,
      0.2173683199936062
    ],
    [
      -0.12269595592845389,
      0.020884968794939167,
      0.09500374771052872
    ],
    [
      -0.2612432316454417,
      0.028930683334333712,
      0.23524859034613457
    ],
    [
      0.17218985131248815,
      -0.13636288395290583,
      -0.037529485719354286
    ],
    [
      -0.03170974360420207,
      0.07509335465590998,
      -0.04054677065966648
    ],
    [
      0.05331197745814021,
      0.12474428728034609,
      -0.1842974727503567
    ],
    [
      -0.14580132940840693,
      0.04055029088515575,
      0.10602895073961444
    ],
    [
      -0.5625318978078946,
      0.058405756384239546,
      0.4993628444538616
    ],
    [
      0.045067151645720935,
      -0.029532573703841037,
      -0.02614008413252832
    ],
    [
      0.023851651810014526,
      0.11379136358956032,
      -0.14294662032046487
    ],
    [
      -0.1069659018305098,
      0.18360001412072374,
      -0.08502746845585046
    ],
    [
      -0.4120515244282372,
      0.09585449108073574,
      0.3259807606447324
    ],
    [
      0.0035786553948732158,
      0.1132889031471552,
      -0.11265319819958508
    ],
    [
      0.2875597406055297,
      0.015202319487382765,
      -0.30927412699411466
    ],
    [
      -0.24157699756612863,
      -0.2396380033438405,
      0.4690085245269958
    ],
    [
      0.3125114750915584,
      -0.16103447884347055,
      -0.15253398233914778
    ],
    [
      -0.4401744884007398,
      0.7030305557428356,
      -0.26239928377696886
    ],
    [
      -0.04925579648703399,
      -0.036579459604413576,
      0.07998420084790439
    ],
    [
      -0.37239875373269465,
      0.008889539073300683,
      0.3617551354721263
    ],
    [
      -0.26715227409667014,
      -0.06373854292387812,
      0.3209714038946302
    ],
    [
      0.022405826190971593,
      0.1937773642533575,
      -0.20828571032880333
    ],
    [
      0.005020502153000839,
      -0.1918837894441,
      0.1886279615551468
    ],
    [
      -0.26766128359059516,
      0.039719160847615786,
      0.23272888739228215
    ],
    [
      0.15686084523799154,
      0.013685559475000086,
      -0.17265997288117518
    ],
    [
      0.31554285962656076,
      0.11275737230948887,
      -0.43095655612518874
    ],
    [
      -0.2699295295556122,
      -0.03334028934603584,
      0.2960795248414089
    ],
    [
      0.3147453530581013,
      0.05768873970035699,
      -0.38148601762498424
    ],
    [
      0.40711810812442306,
      -0.14230260318850554,
      -0.2557647313674147
    ],
    [
      0.2575436499159375,
      -0.3495545798422698,
      0.09496708357414974
    ],
    [
      0.002038705344691214,
      0.00016708246305361608,
      -0.0024785167678245414
    ],
    [
      0.3596828090416575,
      -0.10893578266986248,
      -0.25687258093121434
    ],
    [
      -0.38071203712716895,
      0.031734601529959265,
      0.35391671118466894
    ],
    [
      0.1568755937242385,
      -0.1883313416698637,
      0.032311699629207165
    ],
    [
      0.42187273637258177,
      0.005614933337327334,
      -0.4277488218141278
    ],
    [
      0.014387436966349743,
      0.10371688371498043,
      -0.1118410749334636
    ],
    [
      0.18702268930573493,
      0.0959759844997698,
      -0.28578369448689256
    ],
    [
      0.4483283069148417,
      -0.0182387814906893,
      -0.4288940154285417
    ],
    [
      0.21578007670238794,
      -0.1527927744818623,
      -0.05877002133306647
    ],
    [
      -0.24159682828685966,
      -0.03654933474512051,
      0.276725711594375
    ],
    [
      -0.1232570357887643,
      -0.08355212651075823,
      0.21230318675902093
    ],
    [
      -0.4421729637218782,
      -0.007066618367894787,
      0.44328621638331994
    ],
    [
      0.17296732375026977,
      -0.010354856521916433,
      -0.1640061551924257
    ],
    [
      -0.19732026097942382,
      0.09540181501114554,
      0.09920541658649393
    ],
    [
      0.09061121773559615,
      -0.06968952146078143,
      -0.01878581046103365
    ]
  ],
  "bias": [
    0.45716151226532376,
    -0.12516744866984497,
    -0.3319940635954803
  ],
  "version": "2026-03-19T21:45:21.394Z",
  "test_accuracy": 0.4604473540643753
}